FANN_FLO_2.1
num_layers=3
learning_rate=0.700000
connection_rate=1.000000
network_type=0
learning_momentum=0.000000
training_algorithm=0
train_error_function=1
train_stop_function=0
cascade_output_change_fraction=0.010000
quickprop_decay=-0.000100
quickprop_mu=1.750000
rprop_increase_factor=1.200000
rprop_decrease_factor=0.500000
rprop_delta_min=0.000000
rprop_delta_max=50.000000
rprop_delta_zero=0.100000
cascade_output_stagnation_epochs=12
cascade_candidate_change_fraction=0.010000
cascade_candidate_stagnation_epochs=12
cascade_max_out_epochs=150
cascade_min_out_epochs=50
cascade_max_cand_epochs=150
cascade_min_cand_epochs=50
cascade_num_candidate_groups=2
bit_fail_limit=3.49999994039535522461e-01
cascade_candidate_limit=1.00000000000000000000e+03
cascade_weight_multiplier=4.00000005960464477539e-01
cascade_activation_functions_count=10
cascade_activation_functions=3 5 7 8 10 11 14 15 16 17 
cascade_activation_steepnesses_count=4
cascade_activation_steepnesses=2.50000000000000000000e-01 5.00000000000000000000e-01 7.50000000000000000000e-01 1.00000000000000000000e+00 
layer_sizes=15 11 3 
scale_included=0
neurons (num_inputs, activation_function, activation_steepness)=(0, 0, 0.00000000000000000000e+00) (0, 0, 0.00000000000000000000e+00) (0, 0, 0.00000000000000000000e+00) (0, 0, 0.00000000000000000000e+00) (0, 0, 0.00000000000000000000e+00) (0, 0, 0.00000000000000000000e+00) (0, 0, 0.00000000000000000000e+00) (0, 0, 0.00000000000000000000e+00) (0, 0, 0.00000000000000000000e+00) (0, 0, 0.00000000000000000000e+00) (0, 0, 0.00000000000000000000e+00) (0, 0, 0.00000000000000000000e+00) (0, 0, 0.00000000000000000000e+00) (0, 0, 0.00000000000000000000e+00) (0, 0, 0.00000000000000000000e+00) (15, 12, 5.00000000000000000000e-01) (15, 12, 5.00000000000000000000e-01) (15, 12, 5.00000000000000000000e-01) (15, 12, 5.00000000000000000000e-01) (15, 12, 5.00000000000000000000e-01) (15, 12, 5.00000000000000000000e-01) (15, 12, 5.00000000000000000000e-01) (15, 12, 5.00000000000000000000e-01) (15, 12, 5.00000000000000000000e-01) (15, 12, 5.00000000000000000000e-01) (0, 12, 0.00000000000000000000e+00) (11, 12, 5.00000000000000000000e-01) (11, 12, 5.00000000000000000000e-01) (0, 12, 0.00000000000000000000e+00) 
connections (connected_to_neuron, weight)=(0, -9.02383200000000000000e+07) (1, 2.68762000000000000000e+07) (2, -3.51616812500000000000e+05) (3, -1.52160704000000000000e+08) (4, 9.68057280000000000000e+07) (5, -2.71250020000000000000e+07) (6, -3.43669656250000000000e+05) (7, 1.54993920000000000000e+08) (8, -5.14225971200000000000e+10) (9, -7.16197120000000000000e+07) (10, 2.82758700000000000000e+07) (11, 1.01001830000000000000e+07) (12, -9.37200000000000000000e+07) (13, -1.20208957440000000000e+10) (14, -2.90612468719482421875e+01) (0, -1.17984870000000000000e+07) (1, 2.81740200000000000000e+06) (2, 8.20489140625000000000e+04) (3, -2.00459700000000000000e+07) (4, 1.20259590000000000000e+07) (5, -2.67299625000000000000e+06) (6, -1.27992578125000000000e+05) (7, 1.94429740000000000000e+07) (8, -6.57463244800000000000e+09) (9, -9.05335700000000000000e+06) (10, 3.61794625000000000000e+06) (11, 1.13389700000000000000e+06) (12, -1.16609250000000000000e+07) (13, -1.77901171200000000000e+09) (14, -7.09828872680664062500e+01) (0, -1.42935212500000000000e+06) (1, 3.80738437500000000000e+05) (2, 1.95692883300781250000e+03) (3, -2.43223125000000000000e+06) (4, 1.48689700000000000000e+06) (5, -3.75109031250000000000e+05) (6, -1.03758720703125000000e+04) (7, 2.40796325000000000000e+06) (8, -8.00156096000000000000e+08) (9, -1.11491125000000000000e+06) (10, 4.40580062500000000000e+05) (11, 1.47970500000000000000e+05) (12, -1.45443900000000000000e+06) (13, -2.02077056000000000000e+08) (14, -3.85150241851806640625e+00) (0, -9.52375040000000000000e+07) (1, 2.21672320000000000000e+07) (2, 7.26539000000000000000e+05) (3, -1.60921856000000000000e+08) (4, 9.51655840000000000000e+07) (5, -2.08681360000000000000e+07) (6, -1.08402400000000000000e+06) (7, 1.55148016000000000000e+08) (8, -5.26332354560000000000e+10) (9, -7.22055280000000000000e+07) (10, 2.91172840000000000000e+07) (11, 8.91848100000000000000e+06) (12, -9.32050800000000000000e+07) (13, -1.44004648960000000000e+10) (14, -4.71333465576171875000e+01) (0, -7.69209312500000000000e+05) (1, 2.21779875000000000000e+05) (2, -4.12494140625000000000e+03) (3, -1.21199812500000000000e+06) (4, 8.24570437500000000000e+05) (5, -2.28511078125000000000e+05) (6, -2.08152197265625000000e+03) (7, 1.24571612500000000000e+06) (8, -4.26305760000000000000e+08) (9, -5.53850312500000000000e+05) (10, 2.28772640625000000000e+05) (11, 8.63147890625000000000e+04) (12, -7.71629875000000000000e+05) (13, -9.64597520000000000000e+07) (14, -1.83320090174674987793e-01) (0, -9.17227680000000000000e+07) (1, 2.76730900000000000000e+07) (2, -3.43812437500000000000e+05) (3, -1.52337568000000000000e+08) (4, 9.82516640000000000000e+07) (5, -2.79555160000000000000e+07) (6, -3.55295687500000000000e+05) (7, 1.55160064000000000000e+08) (8, -5.17250621440000000000e+10) (9, -7.29278400000000000000e+07) (10, 2.89697180000000000000e+07) (11, 1.01920420000000000000e+07) (12, -9.39161680000000000000e+07) (13, -1.21361653760000000000e+10) (14, -3.51644363403320312500e+01) (0, -1.07301190000000000000e+07) (1, 2.60057450000000000000e+06) (2, 7.09728046875000000000e+04) (3, -1.81479100000000000000e+07) (4, 1.10169620000000000000e+07) (5, -2.49249725000000000000e+06) (6, -1.15904750000000000000e+05) (7, 1.75952860000000000000e+07) (8, -6.09238784000000000000e+09) (9, -8.00746450000000000000e+06) (10, 3.31529150000000000000e+06) (11, 1.05355050000000000000e+06) (12, -1.05431820000000000000e+07) (13, -1.63379558400000000000e+09) (14, -7.52207107543945312500e+01) (0, -1.41055420000000000000e+07) (1, 3.14228650000000000000e+06) (2, 9.52681328125000000000e+04) (3, -2.23413180000000000000e+07) (4, 1.42269110000000000000e+07) (5, -2.95565925000000000000e+06) (6, -1.46419484375000000000e+05) (7, 2.15125840000000000000e+07) (8, -7.27093606400000000000e+09) (9, -9.86245400000000000000e+06) (10, 4.03652150000000000000e+06) (11, 1.24996875000000000000e+06) (12, -1.26194330000000000000e+07) (13, -1.98635532800000000000e+09) (14, -7.53868026733398437500e+01) (0, -9.52091280000000000000e+07) (1, 2.22718240000000000000e+07) (2, 7.18572937500000000000e+05) (3, -1.60899472000000000000e+08) (4, 9.51937920000000000000e+07) (5, -2.08726020000000000000e+07) (6, -1.07900587500000000000e+06) (7, 1.55138976000000000000e+08) (8, -5.26623375360000000000e+10) (9, -7.21727040000000000000e+07) (10, 2.91224100000000000000e+07) (11, 8.94315000000000000000e+06) (12, -9.32013360000000000000e+07) (13, -1.44677253120000000000e+10) (14, -4.07055175781250000000e+02) (0, -9.17780720000000000000e+07) (1, 2.75164000000000000000e+07) (2, -3.50834593750000000000e+05) (3, -1.52320800000000000000e+08) (4, 9.80883920000000000000e+07) (5, -2.81703880000000000000e+07) (6, -3.49428218750000000000e+05) (7, 1.55135008000000000000e+08) (8, -5.15251281920000000000e+10) (9, -7.30995840000000000000e+07) (10, 2.88335880000000000000e+07) (11, 1.01586000000000000000e+07) (12, -9.39150560000000000000e+07) (13, -1.20792627200000000000e+10) (14, -2.91137104034423828125e+01) (15, 5.87244701385498046875e+00) (16, 7.52310276031494140625e-01) (17, 9.15288925170898437500e-02) (18, 6.02259969711303710938e+00) (19, 4.86081764101982116699e-02) (20, 5.90974426269531250000e+00) (21, 6.96299076080322265625e-01) (22, 8.33071231842041015625e-01) (23, 6.02798414230346679688e+00) (24, 5.88308525085449218750e+00) (25, -3.84415149688720703125e+00) (15, -5.90030288696289062500e+00) (16, -4.26254272460937500000e-02) (17, -4.99150454998016357422e-02) (18, 6.49170875549316406250e-02) (19, -5.54705709218978881836e-02) (20, -5.87293910980224609375e+00) (21, -6.62055015563964843750e-02) (22, -2.05616950988769531250e-02) (23, 2.36014034599065780640e-02) (24, -5.88538646697998046875e+00) (25, -2.36015319824218750000e-02) 
