FANN_FLO_2.1
num_layers=3
learning_rate=0.700000
connection_rate=1.000000
network_type=0
learning_momentum=0.000000
training_algorithm=2
train_error_function=1
train_stop_function=0
cascade_output_change_fraction=0.010000
quickprop_decay=-0.000100
quickprop_mu=1.750000
rprop_increase_factor=1.200000
rprop_decrease_factor=0.500000
rprop_delta_min=0.000000
rprop_delta_max=50.000000
rprop_delta_zero=0.100000
cascade_output_stagnation_epochs=12
cascade_candidate_change_fraction=0.010000
cascade_candidate_stagnation_epochs=12
cascade_max_out_epochs=150
cascade_min_out_epochs=50
cascade_max_cand_epochs=150
cascade_min_cand_epochs=50
cascade_num_candidate_groups=2
bit_fail_limit=3.49999994039535522461e-01
cascade_candidate_limit=1.00000000000000000000e+03
cascade_weight_multiplier=4.00000005960464477539e-01
cascade_activation_functions_count=10
cascade_activation_functions=3 5 7 8 10 11 14 15 16 17 
cascade_activation_steepnesses_count=4
cascade_activation_steepnesses=2.50000000000000000000e-01 5.00000000000000000000e-01 7.50000000000000000000e-01 1.00000000000000000000e+00 
layer_sizes=15 11 3 
scale_included=0
neurons (num_inputs, activation_function, activation_steepness)=(0, 0, 0.00000000000000000000e+00) (0, 0, 0.00000000000000000000e+00) (0, 0, 0.00000000000000000000e+00) (0, 0, 0.00000000000000000000e+00) (0, 0, 0.00000000000000000000e+00) (0, 0, 0.00000000000000000000e+00) (0, 0, 0.00000000000000000000e+00) (0, 0, 0.00000000000000000000e+00) (0, 0, 0.00000000000000000000e+00) (0, 0, 0.00000000000000000000e+00) (0, 0, 0.00000000000000000000e+00) (0, 0, 0.00000000000000000000e+00) (0, 0, 0.00000000000000000000e+00) (0, 0, 0.00000000000000000000e+00) (0, 0, 0.00000000000000000000e+00) (15, 5, 5.00000000000000000000e-01) (15, 5, 5.00000000000000000000e-01) (15, 5, 5.00000000000000000000e-01) (15, 5, 5.00000000000000000000e-01) (15, 5, 5.00000000000000000000e-01) (15, 5, 5.00000000000000000000e-01) (15, 5, 5.00000000000000000000e-01) (15, 5, 5.00000000000000000000e-01) (15, 5, 5.00000000000000000000e-01) (15, 5, 5.00000000000000000000e-01) (0, 5, 0.00000000000000000000e+00) (11, 5, 5.00000000000000000000e-01) (11, 5, 5.00000000000000000000e-01) (0, 5, 0.00000000000000000000e+00) 
connections (connected_to_neuron, weight)=(0, -1.49794519042968750000e+03) (1, 1.50000000000000000000e+03) (2, 1.50000000000000000000e+03) (3, -1.49984545898437500000e+03) (4, -1.49999963378906250000e+03) (5, 1.50000000000000000000e+03) (6, 1.49973974609375000000e+03) (7, 1.50000000000000000000e+03) (8, -1.50000000000000000000e+03) (9, 4.62302246093750000000e+01) (10, 1.49993334960937500000e+03) (11, -1.50000000000000000000e+03) (12, 1.50000000000000000000e+03) (13, -1.50000000000000000000e+03) (14, 2.15018987655639648438e+00) (0, 1.50000000000000000000e+03) (1, -1.49993249511718750000e+03) (2, -1.50000000000000000000e+03) (3, 1.50000000000000000000e+03) (4, -8.23233154296875000000e+02) (5, -1.49999963378906250000e+03) (6, -1.50000000000000000000e+03) (7, -1.49999963378906250000e+03) (8, 1.50000000000000000000e+03) (9, -1.44339990234375000000e+03) (10, -1.37295739746093750000e+03) (11, -1.50000000000000000000e+03) (12, -1.50000000000000000000e+03) (13, 1.50000000000000000000e+03) (14, -5.99584043025970458984e-01) (0, -2.04080045223236083984e-01) (1, 1.00312359631061553955e-01) (2, 9.24407765269279479980e-02) (3, -4.31859567761421203613e-02) (4, 1.04074633121490478516e+00) (5, 6.99648857116699218750e-02) (6, 4.95869040489196777344e-01) (7, -4.64693754911422729492e-02) (8, -1.34963104501366615295e-02) (9, -8.62351730465888977051e-02) (10, 5.91332353651523590088e-02) (11, 1.53035089373588562012e-01) (12, -6.32775649428367614746e-02) (13, 5.54559426382184028625e-03) (14, -2.96759128570556640625e+00) (0, -1.49190039062500000000e+03) (1, 1.50000000000000000000e+03) (2, -1.50000000000000000000e+03) (3, -1.49676452636718750000e+03) (4, -1.49999963378906250000e+03) (5, 1.50000000000000000000e+03) (6, -1.48840417480468750000e+03) (7, 1.49973815917968750000e+03) (8, -1.50000000000000000000e+03) (9, 1.51565513610839843750e+01) (10, 1.49975073242187500000e+03) (11, -1.50000000000000000000e+03) (12, -1.49980261230468750000e+03) (13, -1.50000000000000000000e+03) (14, 1.35373376464843750000e+03) (0, 1.50000000000000000000e+03) (1, -7.97172973632812500000e+02) (2, -1.50000000000000000000e+03) (3, 1.50000000000000000000e+03) (4, -1.19500097656250000000e+03) (5, -1.48707141113281250000e+03) (6, -1.50000000000000000000e+03) (7, -1.46942004394531250000e+03) (8, -1.49931323242187500000e+03) (9, 1.12159311771392822266e+00) (10, -1.42603393554687500000e+03) (11, -1.50000000000000000000e+03) (12, -1.50000000000000000000e+03) (13, 7.99215820312500000000e+02) (14, 9.19385015964508056641e-01) (0, -1.47310522460937500000e+03) (1, 1.50000000000000000000e+03) (2, -1.50000000000000000000e+03) (3, -1.36265222167968750000e+03) (4, -1.49035717773437500000e+03) (5, 1.50000000000000000000e+03) (6, -1.49985449218750000000e+03) (7, 1.50000000000000000000e+03) (8, -1.50000000000000000000e+03) (9, 7.33261048793792724609e-01) (10, 1.49985363769531250000e+03) (11, -1.50000000000000000000e+03) (12, 1.50000000000000000000e+03) (13, -1.50000000000000000000e+03) (14, 2.80563664436340332031e+00) (0, 1.50000000000000000000e+03) (1, -1.49988610839843750000e+03) (2, -1.50000000000000000000e+03) (3, 1.50000000000000000000e+03) (4, 3.83859771728515625000e+02) (5, -1.49999963378906250000e+03) (6, -1.50000000000000000000e+03) (7, -1.49999963378906250000e+03) (8, 1.50000000000000000000e+03) (9, -1.44549438476562500000e+03) (10, -1.20890551757812500000e+03) (11, -1.50000000000000000000e+03) (12, -1.50000000000000000000e+03) (13, 1.50000000000000000000e+03) (14, 6.57208859920501708984e-02) (0, -1.43298010253906250000e+03) (1, 1.50000000000000000000e+03) (2, -1.50000000000000000000e+03) (3, -1.48462475585937500000e+03) (4, -1.49885253906250000000e+03) (5, 1.50000000000000000000e+03) (6, -1.49999963378906250000e+03) (7, 1.50000000000000000000e+03) (8, -1.50000000000000000000e+03) (9, 6.40410537719726562500e+01) (10, 1.49985034179687500000e+03) (11, -1.50000000000000000000e+03) (12, 1.50000000000000000000e+03) (13, -1.50000000000000000000e+03) (14, 1.17200549316406250000e+03) (0, -1.49878051757812500000e+03) (1, 1.50000000000000000000e+03) (2, -1.50000000000000000000e+03) (3, -1.49550097656250000000e+03) (4, -1.49841540527343750000e+03) (5, 1.50000000000000000000e+03) (6, -1.49999963378906250000e+03) (7, 1.50000000000000000000e+03) (8, -1.50000000000000000000e+03) (9, 7.64385757446289062500e+01) (10, 1.49983703613281250000e+03) (11, -1.50000000000000000000e+03) (12, 1.49284741210937500000e+03) (13, -1.50000000000000000000e+03) (14, 1.25188122558593750000e+03) (0, -1.49955810546875000000e+03) (1, 1.50000000000000000000e+03) (2, -1.50000000000000000000e+03) (3, -1.46109301757812500000e+03) (4, 1.11218469238281250000e+03) (5, 1.50000000000000000000e+03) (6, -1.49999963378906250000e+03) (7, 1.50000000000000000000e+03) (8, -1.50000000000000000000e+03) (9, 2.90432338714599609375e+01) (10, -1.46748718261718750000e+03) (11, -1.50000000000000000000e+03) (12, 1.50000000000000000000e+03) (13, -1.50000000000000000000e+03) (14, 1.71279120445251464844e+00) (15, 2.65599548816680908203e-01) (16, 5.96829235553741455078e-01) (17, 1.44078028202056884766e+00) (18, 2.40285307168960571289e-01) (19, 1.82820726186037063599e-02) (20, 2.93321758508682250977e-01) (21, 6.09085261821746826172e-01) (22, 2.93635785579681396484e-01) (23, 2.96546995639801025391e-01) (24, 2.13035181164741516113e-01) (25, 1.87391650676727294922e+00) (15, 2.24875316023826599121e-01) (16, -3.91202479600906372070e-01) (17, -2.07147710025310516357e-02) (18, 5.99754340946674346924e-02) (19, -6.79118651896715164185e-03) (20, 9.03304368257522583008e-02) (21, -3.64501118659973144531e-01) (22, 8.56595262885093688965e-02) (23, 7.34556317329406738281e-02) (24, 6.78613856434822082520e-02) (25, 1.42235457897186279297e+00) 
