FANN_FLO_2.1
num_layers=3
learning_rate=0.700000
connection_rate=1.000000
network_type=0
learning_momentum=0.000000
training_algorithm=0
train_error_function=1
train_stop_function=0
cascade_output_change_fraction=0.010000
quickprop_decay=-0.000100
quickprop_mu=1.750000
rprop_increase_factor=1.200000
rprop_decrease_factor=0.500000
rprop_delta_min=0.000000
rprop_delta_max=50.000000
rprop_delta_zero=0.100000
cascade_output_stagnation_epochs=12
cascade_candidate_change_fraction=0.010000
cascade_candidate_stagnation_epochs=12
cascade_max_out_epochs=150
cascade_min_out_epochs=50
cascade_max_cand_epochs=150
cascade_min_cand_epochs=50
cascade_num_candidate_groups=2
bit_fail_limit=3.49999994039535522461e-01
cascade_candidate_limit=1.00000000000000000000e+03
cascade_weight_multiplier=4.00000005960464477539e-01
cascade_activation_functions_count=10
cascade_activation_functions=3 5 7 8 10 11 14 15 16 17 
cascade_activation_steepnesses_count=4
cascade_activation_steepnesses=2.50000000000000000000e-01 5.00000000000000000000e-01 7.50000000000000000000e-01 1.00000000000000000000e+00 
layer_sizes=15 11 3 
scale_included=0
neurons (num_inputs, activation_function, activation_steepness)=(0, 0, 0.00000000000000000000e+00) (0, 0, 0.00000000000000000000e+00) (0, 0, 0.00000000000000000000e+00) (0, 0, 0.00000000000000000000e+00) (0, 0, 0.00000000000000000000e+00) (0, 0, 0.00000000000000000000e+00) (0, 0, 0.00000000000000000000e+00) (0, 0, 0.00000000000000000000e+00) (0, 0, 0.00000000000000000000e+00) (0, 0, 0.00000000000000000000e+00) (0, 0, 0.00000000000000000000e+00) (0, 0, 0.00000000000000000000e+00) (0, 0, 0.00000000000000000000e+00) (0, 0, 0.00000000000000000000e+00) (0, 0, 0.00000000000000000000e+00) (15, 13, 5.00000000000000000000e-01) (15, 13, 5.00000000000000000000e-01) (15, 13, 5.00000000000000000000e-01) (15, 13, 5.00000000000000000000e-01) (15, 13, 5.00000000000000000000e-01) (15, 13, 5.00000000000000000000e-01) (15, 13, 5.00000000000000000000e-01) (15, 13, 5.00000000000000000000e-01) (15, 13, 5.00000000000000000000e-01) (15, 13, 5.00000000000000000000e-01) (0, 13, 0.00000000000000000000e+00) (11, 13, 5.00000000000000000000e-01) (11, 13, 5.00000000000000000000e-01) (0, 13, 0.00000000000000000000e+00) 
connections (connected_to_neuron, weight)=(0, 4.80455875000000000000e+05) (1, 4.77173242187500000000e+04) (2, 1.10133656250000000000e+05) (3, -1.16893183593750000000e+04) (4, -6.30101000000000000000e+05) (5, -1.61420214843750000000e+04) (6, -1.35075843750000000000e+05) (7, -3.50552421875000000000e+04) (8, -3.02275854492187500000e+03) (9, 1.82977671875000000000e+05) (10, 5.09393798828125000000e+03) (11, -3.18492480468750000000e+04) (12, 1.73640429687500000000e+04) (13, 3.66671997070312500000e+03) (14, -6.79293437500000000000e+04) (0, -2.61847031250000000000e+05) (1, -1.85613691406250000000e+04) (2, -5.02935976562500000000e+04) (3, 2.51685253906250000000e+03) (4, 3.42550156250000000000e+05) (5, 1.21431308593750000000e+04) (6, 7.89537578125000000000e+04) (7, 2.85564042968750000000e+04) (8, -4.35823437500000000000e+03) (9, -8.29156796875000000000e+04) (10, -7.33838281250000000000e+03) (11, 2.47663710937500000000e+04) (12, -8.48037304687500000000e+03) (13, -5.22174011230468750000e+02) (14, 5.09290742187500000000e+04) (0, -4.66085234375000000000e+04) (1, -1.21524814453125000000e+04) (2, -1.26936445312500000000e+04) (3, 8.84519531250000000000e+03) (4, 5.70654843750000000000e+04) (5, 8.11736279296875000000e+03) (6, 9.90863085937500000000e+03) (7, -2.10895947265625000000e+03) (8, -1.80366882324218750000e+03) (9, -9.65482519531250000000e+03) (10, -2.47317919921875000000e+03) (11, 8.49466894531250000000e+03) (12, -7.91216247558593750000e+02) (13, -2.56872216796875000000e+03) (14, 2.90889721679687500000e+03) (0, 2.34787781250000000000e+05) (1, 2.17513125000000000000e+04) (2, 4.64796367187500000000e+04) (3, -3.24254364013671875000e+02) (4, -3.11015000000000000000e+05) (5, -7.96061767578125000000e+03) (6, -7.07198984375000000000e+04) (7, -2.30770781250000000000e+04) (8, 7.96133349609375000000e+03) (9, 7.06409687500000000000e+04) (10, 7.29792822265625000000e+03) (11, -1.76517812500000000000e+04) (12, 2.78468945312500000000e+03) (13, -1.86439941406250000000e+03) (14, -3.84601992187500000000e+04) (0, -4.23189093750000000000e+05) (1, -3.96015234375000000000e+04) (2, -8.47643515625000000000e+04) (3, -1.76598339843750000000e+03) (4, 5.53350000000000000000e+05) (5, 6.99257031250000000000e+03) (6, 1.23869906250000000000e+05) (7, 4.56932187500000000000e+04) (8, -7.65455419921875000000e+03) (9, -1.54851015625000000000e+05) (10, -1.20184667968750000000e+03) (11, 3.01304570312500000000e+04) (12, -1.95292636718750000000e+04) (13, 2.24975268554687500000e+03) (14, 5.82676953125000000000e+04) (0, -1.80351580000000000000e+07) (1, -2.80027360000000000000e+07) (2, -2.28956400000000000000e+07) (3, 8.32275250000000000000e+06) (4, -3.78525760000000000000e+07) (5, -3.00877180000000000000e+07) (6, -2.14090280000000000000e+07) (7, -3.28504320000000000000e+07) (8, 2.47159449600000000000e+09) (9, -2.89946840000000000000e+07) (10, -2.63474360000000000000e+07) (11, -2.35169300000000000000e+07) (12, -2.99686120000000000000e+07) (13, 1.14269304000000000000e+08) (14, -1.91404420000000000000e+07) (0, 2.45101546875000000000e+05) (1, 2.68573300781250000000e+04) (2, 3.92106562500000000000e+04) (3, -5.93157617187500000000e+03) (4, -3.10117781250000000000e+05) (5, -9.42245117187500000000e+03) (6, -6.81187343750000000000e+04) (7, -2.22189843750000000000e+04) (8, -6.78348083496093750000e+02) (9, 7.81748828125000000000e+04) (10, 6.91488134765625000000e+03) (11, -2.53724296875000000000e+04) (12, 1.81895471191406250000e+03) (13, 3.19612817382812500000e+03) (14, -5.60352460937500000000e+04) (0, -1.70770265625000000000e+05) (1, -1.95611523437500000000e+04) (2, -3.36628945312500000000e+04) (3, 4.66140039062500000000e+03) (4, 2.13076812500000000000e+05) (5, 3.95822851562500000000e+03) (6, 4.46081640625000000000e+04) (7, 1.14492763671875000000e+04) (8, -7.89681396484375000000e+03) (9, -5.49149101562500000000e+04) (10, -1.26672050781250000000e+04) (11, 1.20098886718750000000e+04) (12, -2.72479199218750000000e+03) (13, 4.86603613281250000000e+03) (14, 2.82223945312500000000e+04) (0, 6.01769218750000000000e+04) (1, 1.15638310546875000000e+04) (2, 5.25141503906250000000e+03) (3, 4.15959619140625000000e+03) (4, -6.42070156250000000000e+04) (5, -1.07760400390625000000e+03) (6, -1.13110839843750000000e+04) (7, -6.91229882812500000000e+03) (8, 1.24600671386718750000e+03) (9, 1.31468164062500000000e+04) (10, -9.93849304199218750000e+02) (11, -9.99225683593750000000e+03) (12, 3.17479858398437500000e+02) (13, -4.65479589843750000000e+03) (14, -1.42234072265625000000e+04) (0, -4.12782265625000000000e+04) (1, -3.87568090820312500000e+03) (2, 4.85064013671875000000e+03) (3, -2.62474182128906250000e+02) (4, 5.73128281250000000000e+04) (5, -7.06522656250000000000e+03) (6, 1.36963251953125000000e+04) (7, 1.58434501953125000000e+04) (8, 1.03672001953125000000e+04) (9, -1.12138876953125000000e+04) (10, -6.16999572753906250000e+02) (11, 7.96450976562500000000e+03) (12, 5.12722216796875000000e+03) (13, -3.58630908203125000000e+03) (14, 1.20433173828125000000e+04) (15, -5.91915702819824218750e+00) (16, -3.96712660789489746094e-01) (17, 7.94490242004394531250e+00) (18, 2.21370577812194824219e-01) (19, 7.68810510635375976562e-01) (20, -1.51175489425659179688e+01) (21, -9.12989711761474609375e+00) (22, -1.27144873142242431641e-01) (23, 2.71695518493652343750e+00) (24, -1.14549434185028076172e+00) (25, 4.30852699279785156250e+01) (15, 2.02746316790580749512e-01) (16, 2.01194971799850463867e-01) (17, 3.36637824773788452148e-01) (18, 1.57956108450889587402e-01) (19, -3.77060532569885253906e-01) (20, -1.94339218139648437500e+01) (21, 7.46285676956176757812e-01) (22, 3.44397723674774169922e-02) (23, -5.92360496520996093750e-02) (24, -1.40763133764266967773e-01) (25, 2.07488517761230468750e+01) 
