FANN_FLO_2.1
num_layers=3
learning_rate=0.700000
connection_rate=1.000000
network_type=0
learning_momentum=0.000000
training_algorithm=2
train_error_function=1
train_stop_function=0
cascade_output_change_fraction=0.010000
quickprop_decay=-0.000100
quickprop_mu=1.750000
rprop_increase_factor=1.200000
rprop_decrease_factor=0.500000
rprop_delta_min=0.000000
rprop_delta_max=50.000000
rprop_delta_zero=0.100000
cascade_output_stagnation_epochs=12
cascade_candidate_change_fraction=0.010000
cascade_candidate_stagnation_epochs=12
cascade_max_out_epochs=150
cascade_min_out_epochs=50
cascade_max_cand_epochs=150
cascade_min_cand_epochs=50
cascade_num_candidate_groups=2
bit_fail_limit=3.49999994039535522461e-01
cascade_candidate_limit=1.00000000000000000000e+03
cascade_weight_multiplier=4.00000005960464477539e-01
cascade_activation_functions_count=10
cascade_activation_functions=3 5 7 8 10 11 14 15 16 17 
cascade_activation_steepnesses_count=4
cascade_activation_steepnesses=2.50000000000000000000e-01 5.00000000000000000000e-01 7.50000000000000000000e-01 1.00000000000000000000e+00 
layer_sizes=15 11 3 
scale_included=0
neurons (num_inputs, activation_function, activation_steepness)=(0, 0, 0.00000000000000000000e+00) (0, 0, 0.00000000000000000000e+00) (0, 0, 0.00000000000000000000e+00) (0, 0, 0.00000000000000000000e+00) (0, 0, 0.00000000000000000000e+00) (0, 0, 0.00000000000000000000e+00) (0, 0, 0.00000000000000000000e+00) (0, 0, 0.00000000000000000000e+00) (0, 0, 0.00000000000000000000e+00) (0, 0, 0.00000000000000000000e+00) (0, 0, 0.00000000000000000000e+00) (0, 0, 0.00000000000000000000e+00) (0, 0, 0.00000000000000000000e+00) (0, 0, 0.00000000000000000000e+00) (0, 0, 0.00000000000000000000e+00) (15, 5, 5.00000000000000000000e-01) (15, 5, 5.00000000000000000000e-01) (15, 5, 5.00000000000000000000e-01) (15, 5, 5.00000000000000000000e-01) (15, 5, 5.00000000000000000000e-01) (15, 5, 5.00000000000000000000e-01) (15, 5, 5.00000000000000000000e-01) (15, 5, 5.00000000000000000000e-01) (15, 5, 5.00000000000000000000e-01) (15, 5, 5.00000000000000000000e-01) (0, 5, 0.00000000000000000000e+00) (11, 5, 5.00000000000000000000e-01) (11, 5, 5.00000000000000000000e-01) (0, 5, 0.00000000000000000000e+00) 
connections (connected_to_neuron, weight)=(0, -1.50000000000000000000e+03) (1, 1.50000000000000000000e+03) (2, -1.49983422851562500000e+03) (3, -1.50000000000000000000e+03) (4, -1.50000000000000000000e+03) (5, -1.50000000000000000000e+03) (6, 1.50000000000000000000e+03) (7, -1.50000000000000000000e+03) (8, -1.50000000000000000000e+03) (9, 1.50000000000000000000e+03) (10, -1.50000000000000000000e+03) (11, 1.50000000000000000000e+03) (12, 1.50000000000000000000e+03) (13, -1.50000000000000000000e+03) (14, 7.57289409637451171875e-01) (0, -1.50000000000000000000e+03) (1, -1.50000000000000000000e+03) (2, 1.50000000000000000000e+03) (3, 1.49999987792968750000e+03) (4, 1.50000000000000000000e+03) (5, -1.13598999023437500000e+03) (6, 1.49999987792968750000e+03) (7, 1.50000000000000000000e+03) (8, -1.50000000000000000000e+03) (9, -1.50000000000000000000e+03) (10, -1.50000000000000000000e+03) (11, 1.50000000000000000000e+03) (12, 1.50000000000000000000e+03) (13, -1.50000000000000000000e+03) (14, 1.37069690227508544922e+00) (0, -1.37900090217590332031e+00) (1, 3.70368480682373046875e-01) (2, 5.39376437664031982422e-01) (3, 1.07192742824554443359e+00) (4, -3.28186368942260742188e+00) (5, 1.97173535823822021484e-01) (6, -2.14830899238586425781e+00) (7, 1.47391545772552490234e+00) (8, 5.90120591223239898682e-02) (9, -2.82898366451263427734e-01) (10, 8.56527090072631835938e-01) (11, 3.55730473995208740234e-01) (12, 7.13508650660514831543e-02) (13, -4.63358722627162933350e-02) (14, 1.33823642730712890625e+01) (0, -1.50000000000000000000e+03) (1, 1.50000000000000000000e+03) (2, -1.49995434570312500000e+03) (3, -1.50000000000000000000e+03) (4, -1.50000000000000000000e+03) (5, -1.50000000000000000000e+03) (6, 1.50000000000000000000e+03) (7, -1.50000000000000000000e+03) (8, -1.50000000000000000000e+03) (9, 1.50000000000000000000e+03) (10, -1.50000000000000000000e+03) (11, 1.50000000000000000000e+03) (12, 1.50000000000000000000e+03) (13, -1.50000000000000000000e+03) (14, 3.13628649711608886719e+00) (0, 1.31584424972534179688e+01) (1, -1.21289739608764648438e+01) (2, -1.18041105270385742188e+01) (3, -5.52061386108398437500e+01) (4, 8.25090255737304687500e+01) (5, -6.01679563522338867188e+00) (6, -9.78608703613281250000e+00) (7, 6.19082145690917968750e+01) (8, -3.06706476211547851562e+00) (9, -5.42389452457427978516e-01) (10, 1.80918235778808593750e+01) (11, 2.01033554077148437500e+01) (12, 1.06609582901000976562e+01) (13, 9.16653513908386230469e-01) (14, 3.16174674034118652344e+00) (0, -1.50000000000000000000e+03) (1, -1.50000000000000000000e+03) (2, 1.50000000000000000000e+03) (3, -1.50000000000000000000e+03) (4, -1.50000000000000000000e+03) (5, -1.49999987792968750000e+03) (6, 1.50000000000000000000e+03) (7, -1.50000000000000000000e+03) (8, -1.50000000000000000000e+03) (9, 1.49999987792968750000e+03) (10, -1.50000000000000000000e+03) (11, 1.50000000000000000000e+03) (12, 1.50000000000000000000e+03) (13, -1.50000000000000000000e+03) (14, 1.13595117187500000000e+03) (0, -1.50000000000000000000e+03) (1, 1.50000000000000000000e+03) (2, 1.50000000000000000000e+03) (3, -1.50000000000000000000e+03) (4, -1.50000000000000000000e+03) (5, -1.49994555664062500000e+03) (6, 1.50000000000000000000e+03) (7, -1.50000000000000000000e+03) (8, -1.50000000000000000000e+03) (9, 1.50000000000000000000e+03) (10, -1.50000000000000000000e+03) (11, 1.50000000000000000000e+03) (12, 1.50000000000000000000e+03) (13, -1.50000000000000000000e+03) (14, 1.21970605850219726562e+00) (0, 3.91121983528137207031e-01) (1, 5.34090280532836914062e+00) (2, -8.29876613616943359375e+00) (3, -1.41669940948486328125e+01) (4, 5.57657814025878906250e+01) (5, 6.74143886566162109375e+00) (6, 1.64313011169433593750e+01) (7, 1.05814256668090820312e+01) (8, -1.27474045753479003906e+00) (9, -1.57920961380004882812e+01) (10, -3.72861480712890625000e+00) (11, -2.58845634460449218750e+01) (12, 6.25676202774047851562e+00) (13, 5.50387620925903320312e-01) (14, 4.03078994750976562500e+01) (0, -1.50000000000000000000e+03) (1, 1.50000000000000000000e+03) (2, -1.49974780273437500000e+03) (3, -1.50000000000000000000e+03) (4, -1.50000000000000000000e+03) (5, -1.34709851074218750000e+03) (6, 1.45124914550781250000e+03) (7, -1.50000000000000000000e+03) (8, -1.65604461669921875000e+02) (9, 1.50000000000000000000e+03) (10, -8.33009155273437500000e+02) (11, 5.72372253417968750000e+02) (12, 1.50000000000000000000e+03) (13, 2.92890243530273437500e+01) (14, 3.40896697998046875000e+02) (0, -3.99175415039062500000e+01) (1, -5.02898597717285156250e+00) (2, -5.84154939651489257812e+00) (3, 1.22578650712966918945e-01) (4, 4.78815612792968750000e+01) (5, -8.97988736629486083984e-01) (6, -9.23272323608398437500e+00) (7, 3.04022002220153808594e+00) (8, -2.88662225008010864258e-01) (9, -2.12744450569152832031e+00) (10, -1.46128761768341064453e+00) (11, -6.64844036102294921875e-01) (12, 7.66738295555114746094e-01) (13, 3.17872427403926849365e-02) (14, -1.07294058799743652344e+00) (15, -1.36011056602001190186e-02) (16, 1.18531130254268646240e-01) (17, -5.97169935703277587891e-01) (18, -5.72366565465927124023e-02) (19, 1.86888709664344787598e-01) (20, 1.30578115582466125488e-01) (21, 2.73327250033617019653e-02) (22, 2.04766616225242614746e-01) (23, -1.78545385599136352539e-01) (24, 5.64797401428222656250e-01) (25, 1.62638366222381591797e+00) (15, 1.71950399875640869141e-01) (16, 1.21187709271907806396e-01) (17, 8.52346718311309814453e-02) (18, 3.29607158899307250977e-01) (19, -1.44709004089236259460e-02) (20, 2.80176341533660888672e-01) (21, 3.60972821712493896484e-01) (22, 7.25605562329292297363e-02) (23, 4.85284402966499328613e-02) (24, -2.82651372253894805908e-02) (25, 1.27055966854095458984e+00) 
